<?xml version="1.0"?>
<opencv_storage>
<cascade>
  <stageType>BOOST</stageType>
  <featureType>HAAR</featureType>
  <height>40</height>
  <width>40</width>
  <stageParams>
    <boostType>GAB</boostType>
    <minHitRate>9.9500000476837158e-001</minHitRate>
    <maxFalseAlarm>4.0000000596046448e-001</maxFalseAlarm>
    <weightTrimRate>9.4999999999999996e-001</weightTrimRate>
    <maxDepth>1</maxDepth>
    <maxWeakCount>100</maxWeakCount></stageParams>
  <featureParams>
    <maxCatCount>0</maxCatCount>
    <featSize>1</featSize>
    <mode>ALL</mode></featureParams>
  <stageNum>13</stageNum>
  <stages>
    <!-- stage 0 -->
    <_>
      <maxWeakCount>4</maxWeakCount>
      <stageThreshold>-1.1051106452941895e+000</stageThreshold>
      <weakClassifiers>
        <_>
          <internalNodes>
            0 -1 6 -9.2629548162221909e-003</internalNodes>
          <leafValues>
            9.2207789421081543e-001 -7.8600823879241943e-001</leafValues></_>
        <_>
          <internalNodes>
            0 -1 31 5.8571267873048782e-003</internalNodes>
          <leafValues>
            -7.4001181125640869e-001 8.0510604381561279e-001</leafValues></_>
        <_>
          <internalNodes>
            0 -1 58 6.3026752322912216e-003</internalNodes>
          <leafValues>
            -4.9188774824142456e-001 9.2935007810592651e-001</leafValues></_>
        <_>
          <internalNodes>
            0 -1 23 7.9483806621283293e-004</internalNodes>
          <leafValues>
            -4.8528814315795898e-001 9.1279709339141846e-001</leafValues></_></weakClassifiers></_>
    <!-- stage 1 -->
    <_>
      <maxWeakCount>4</maxWeakCount>
      <stageThreshold>-9.8629343509674072e-001</stageThreshold>
      <weakClassifiers>
        <_>
          <internalNodes>
            0 -1 42 3.5115331411361694e-002</internalNodes>
          <leafValues>
            -7.6422762870788574e-001 9.1891890764236450e-001</leafValues></_>
        <_>
          <internalNodes>
            0 -1 24 1.3272942043840885e-002</internalNodes>
          <leafValues>
            -5.3954571485519409e-001 8.2906335592269897e-001</leafValues></_>
        <_>
          <internalNodes>
            0 -1 67 -1.5798609703779221e-002</internalNodes>
          <leafValues>
            8.3864855766296387e-001 -4.9033546447753906e-001</leafValues></_>
        <_>
          <internalNodes>
            0 -1 26 2.2333008237183094e-003</internalNodes>
          <leafValues>
            -4.2812234163284302e-001 8.0781537294387817e-001</leafValues></_></weakClassifiers></_>
    <!-- stage 2 -->
    <_>
      <maxWeakCount>6</maxWeakCount>
      <stageThreshold>-1.2965962886810303e+000</stageThreshold>
      <weakClassifiers>
        <_>
          <internalNodes>
            0 -1 45 1.1210204102098942e-002</internalNodes>
          <leafValues>
            -7.2469633817672729e-001 8.0821919441223145e-001</leafValues></_>
        <_>
          <internalNodes>
            0 -1 13 -2.5298256427049637e-002</internalNodes>
          <leafValues>
            8.5427308082580566e-001 -5.6268769502639771e-001</leafValues></_>
        <_>
          <internalNodes>
            0 -1 3 5.1764525473117828e-002</internalNodes>
          <leafValues>
            -4.3455296754837036e-001 8.1156718730926514e-001</leafValues></_>
        <_>
          <internalNodes>
            0 -1 40 3.4512137062847614e-004</internalNodes>
          <leafValues>
            4.3937528133392334e-001 -9.1748249530792236e-001</leafValues></_>
        <_>
          <internalNodes>
            0 -1 55 1.8051883205771446e-002</internalNodes>
          <leafValues>
            -4.9589645862579346e-001 7.9765278100967407e-001</leafValues></_>
        <_>
          <internalNodes>
            0 -1 4 3.0958428396843374e-004</internalNodes>
          <leafValues>
            4.8186194896697998e-001 -8.4930771589279175e-001</leafValues></_></weakClassifiers></_>
    <!-- stage 3 -->
    <_>
      <maxWeakCount>7</maxWeakCount>
      <stageThreshold>-9.3305575847625732e-001</stageThreshold>
      <weakClassifiers>
        <_>
          <internalNodes>
            0 -1 63 2.5844968855381012e-002</internalNodes>
          <leafValues>
            -6.7692309617996216e-001 9.3333333730697632e-001</leafValues></_>
        <_>
          <internalNodes>
            0 -1 22 -3.4705325961112976e-002</internalNodes>
          <leafValues>
            5.3976410627365112e-001 -7.0565372705459595e-001</leafValues></_>
        <_>
          <internalNodes>
            0 -1 1 -1.6226079314947128e-002</internalNodes>
          <leafValues>
            6.7780929803848267e-001 -5.2715462446212769e-001</leafValues></_>
        <_>
          <internalNodes>
            0 -1 21 -1.1289322748780251e-002</internalNodes>
          <leafValues>
            -9.2908918857574463e-001 2.9580390453338623e-001</leafValues></_>
        <_>
          <internalNodes>
            0 -1 8 -2.0727895025629550e-004</internalNodes>
          <leafValues>
            -9.3325459957122803e-001 2.8071853518486023e-001</leafValues></_>
        <_>
          <internalNodes>
            0 -1 39 -4.6019842848181725e-003</internalNodes>
          <leafValues>
            9.0068489313125610e-001 -3.7165382504463196e-001</leafValues></_>
        <_>
          <internalNodes>
            0 -1 51 5.1289685070514679e-003</internalNodes>
          <leafValues>
            -4.3315684795379639e-001 8.3480453491210938e-001</leafValues></_></weakClassifiers></_>
    <!-- stage 4 -->
    <_>
      <maxWeakCount>5</maxWeakCount>
      <stageThreshold>-8.2202196121215820e-001</stageThreshold>
      <weakClassifiers>
        <_>
          <internalNodes>
            0 -1 61 1.1855924502015114e-002</internalNodes>
          <leafValues>
            -7.5000000000000000e-001 7.5000000000000000e-001</leafValues></_>
        <_>
          <internalNodes>
            0 -1 30 1.2255081906914711e-002</internalNodes>
          <leafValues>
            -5.1823931932449341e-001 7.7880758047103882e-001</leafValues></_>
        <_>
          <internalNodes>
            0 -1 0 1.0977685451507568e-002</internalNodes>
          <leafValues>
            -5.8112776279449463e-001 5.1054501533508301e-001</leafValues></_>
        <_>
          <internalNodes>
            0 -1 59 5.7741049677133560e-003</internalNodes>
          <leafValues>
            -4.5027866959571838e-001 8.0364197492599487e-001</leafValues></_>
        <_>
          <internalNodes>
            0 -1 68 1.0638062376528978e-003</internalNodes>
          <leafValues>
            3.8595104217529297e-001 -1.</leafValues></_></weakClassifiers></_>
    <!-- stage 5 -->
    <_>
      <maxWeakCount>6</maxWeakCount>
      <stageThreshold>-5.4135054349899292e-001</stageThreshold>
      <weakClassifiers>
        <_>
          <internalNodes>
            0 -1 35 6.7119777202606201e-002</internalNodes>
          <leafValues>
            -7.1900826692581177e-001 6.9230771064758301e-001</leafValues></_>
        <_>
          <internalNodes>
            0 -1 50 -5.3461687639355659e-003</internalNodes>
          <leafValues>
            7.5272762775421143e-001 -5.1467269659042358e-001</leafValues></_>
        <_>
          <internalNodes>
            0 -1 41 1.7032168805599213e-002</internalNodes>
          <leafValues>
            -3.9318847656250000e-001 7.9838931560516357e-001</leafValues></_>
        <_>
          <internalNodes>
            0 -1 16 7.1812719106674194e-002</internalNodes>
          <leafValues>
            -3.4228157997131348e-001 8.3081012964248657e-001</leafValues></_>
        <_>
          <internalNodes>
            0 -1 48 2.7551501989364624e-003</internalNodes>
          <leafValues>
            -5.2636778354644775e-001 6.0562199354171753e-001</leafValues></_>
        <_>
          <internalNodes>
            0 -1 29 -1.0026408359408379e-002</internalNodes>
          <leafValues>
            8.9578348398208618e-001 -3.5091325640678406e-001</leafValues></_></weakClassifiers></_>
    <!-- stage 6 -->
    <_>
      <maxWeakCount>5</maxWeakCount>
      <stageThreshold>-1.3238487243652344e+000</stageThreshold>
      <weakClassifiers>
        <_>
          <internalNodes>
            0 -1 12 5.5291177704930305e-003</internalNodes>
          <leafValues>
            -7.5229358673095703e-001 4.3137255311012268e-001</leafValues></_>
        <_>
          <internalNodes>
            0 -1 62 1.2776857241988182e-002</internalNodes>
          <leafValues>
            -6.0045105218887329e-001 5.7581919431686401e-001</leafValues></_>
        <_>
          <internalNodes>
            0 -1 33 1.8164124339818954e-003</internalNodes>
          <leafValues>
            3.0883058905601501e-001 -9.7087311744689941e-001</leafValues></_>
        <_>
          <internalNodes>
            0 -1 47 -1.6663216520100832e-003</internalNodes>
          <leafValues>
            4.9161443114280701e-001 -5.5164986848831177e-001</leafValues></_>
        <_>
          <internalNodes>
            0 -1 53 -1.5697609633207321e-002</internalNodes>
          <leafValues>
            -9.8884886503219604e-001 2.7171507477760315e-001</leafValues></_></weakClassifiers></_>
    <!-- stage 7 -->
    <_>
      <maxWeakCount>7</maxWeakCount>
      <stageThreshold>-1.2950948476791382e+000</stageThreshold>
      <weakClassifiers>
        <_>
          <internalNodes>
            0 -1 60 2.4631928652524948e-002</internalNodes>
          <leafValues>
            -6.4202332496643066e-001 7.1428573131561279e-001</leafValues></_>
        <_>
          <internalNodes>
            0 -1 7 1.9785240292549133e-003</internalNodes>
          <leafValues>
            -5.9255313873291016e-001 5.1259624958038330e-001</leafValues></_>
        <_>
          <internalNodes>
            0 -1 57 -4.1064730612561107e-004</internalNodes>
          <leafValues>
            -9.6070361137390137e-001 2.4858212471008301e-001</leafValues></_>
        <_>
          <internalNodes>
            0 -1 32 -9.6582656260579824e-004</internalNodes>
          <leafValues>
            -9.1169506311416626e-001 2.4912184476852417e-001</leafValues></_>
        <_>
          <internalNodes>
            0 -1 19 -3.6530171055346727e-003</internalNodes>
          <leafValues>
            5.9483993053436279e-001 -4.9191305041313171e-001</leafValues></_>
        <_>
          <internalNodes>
            0 -1 54 2.2254433482885361e-002</internalNodes>
          <leafValues>
            -3.5485386848449707e-001 7.6081860065460205e-001</leafValues></_>
        <_>
          <internalNodes>
            0 -1 14 1.9994519650936127e-002</internalNodes>
          <leafValues>
            2.8854459524154663e-001 -9.8727232217788696e-001</leafValues></_></weakClassifiers></_>
    <!-- stage 8 -->
    <_>
      <maxWeakCount>6</maxWeakCount>
      <stageThreshold>-6.7266291379928589e-001</stageThreshold>
      <weakClassifiers>
        <_>
          <internalNodes>
            0 -1 36 2.7023665606975555e-002</internalNodes>
          <leafValues>
            -6.0594797134399414e-001 8.4313726425170898e-001</leafValues></_>
        <_>
          <internalNodes>
            0 -1 18 1.7851274460554123e-002</internalNodes>
          <leafValues>
            -4.5012381672859192e-001 7.3032796382904053e-001</leafValues></_>
        <_>
          <internalNodes>
            0 -1 70 2.5097545585595071e-004</internalNodes>
          <leafValues>
            2.7880692481994629e-001 -9.3850910663604736e-001</leafValues></_>
        <_>
          <internalNodes>
            0 -1 15 -5.0083849579095840e-002</internalNodes>
          <leafValues>
            -8.3927339315414429e-001 2.9812866449356079e-001</leafValues></_>
        <_>
          <internalNodes>
            0 -1 34 6.1754975467920303e-003</internalNodes>
          <leafValues>
            -4.7631275653839111e-001 6.2896525859832764e-001</leafValues></_>
        <_>
          <internalNodes>
            0 -1 43 -6.6637597046792507e-004</internalNodes>
          <leafValues>
            -8.9766579866409302e-001 3.8940992951393127e-001</leafValues></_></weakClassifiers></_>
    <!-- stage 9 -->
    <_>
      <maxWeakCount>5</maxWeakCount>
      <stageThreshold>-8.6207228899002075e-001</stageThreshold>
      <weakClassifiers>
        <_>
          <internalNodes>
            0 -1 46 2.4266077205538750e-002</internalNodes>
          <leafValues>
            -6.5573769807815552e-001 5.2631580829620361e-001</leafValues></_>
        <_>
          <internalNodes>
            0 -1 11 8.3138858899474144e-003</internalNodes>
          <leafValues>
            -5.2962034940719604e-001 4.3191227316856384e-001</leafValues></_>
        <_>
          <internalNodes>
            0 -1 9 -3.9101622998714447e-002</internalNodes>
          <leafValues>
            -8.8040339946746826e-001 2.8711944818496704e-001</leafValues></_>
        <_>
          <internalNodes>
            0 -1 52 6.0363754164427519e-004</internalNodes>
          <leafValues>
            -4.3525159358978271e-001 6.0675942897796631e-001</leafValues></_>
        <_>
          <internalNodes>
            0 -1 28 -1.5697199851274490e-003</internalNodes>
          <leafValues>
            7.4086385965347290e-001 -3.6460283398628235e-001</leafValues></_></weakClassifiers></_>
    <!-- stage 10 -->
    <_>
      <maxWeakCount>7</maxWeakCount>
      <stageThreshold>-5.3039830923080444e-001</stageThreshold>
      <weakClassifiers>
        <_>
          <internalNodes>
            0 -1 27 3.4862153232097626e-002</internalNodes>
          <leafValues>
            -6.5737050771713257e-001 6.5217393636703491e-001</leafValues></_>
        <_>
          <internalNodes>
            0 -1 37 9.5716584473848343e-003</internalNodes>
          <leafValues>
            -6.3787096738815308e-001 4.4567376375198364e-001</leafValues></_>
        <_>
          <internalNodes>
            0 -1 20 -3.8783040363341570e-003</internalNodes>
          <leafValues>
            7.0172947645187378e-001 -3.9266467094421387e-001</leafValues></_>
        <_>
          <internalNodes>
            0 -1 49 4.0353080257773399e-003</internalNodes>
          <leafValues>
            4.7504436969757080e-001 -6.1170333623886108e-001</leafValues></_>
        <_>
          <internalNodes>
            0 -1 44 2.9436504701152444e-004</internalNodes>
          <leafValues>
            3.5117810964584351e-001 -9.1404044628143311e-001</leafValues></_>
        <_>
          <internalNodes>
            0 -1 65 5.0372118130326271e-003</internalNodes>
          <leafValues>
            -4.3850004673004150e-001 6.7622816562652588e-001</leafValues></_>
        <_>
          <internalNodes>
            0 -1 69 -6.6386368125677109e-003</internalNodes>
          <leafValues>
            9.3050706386566162e-001 -3.1375929713249207e-001</leafValues></_></weakClassifiers></_>
    <!-- stage 11 -->
    <_>
      <maxWeakCount>6</maxWeakCount>
      <stageThreshold>-9.2025047540664673e-001</stageThreshold>
      <weakClassifiers>
        <_>
          <internalNodes>
            0 -1 38 1.2008026242256165e-002</internalNodes>
          <leafValues>
            -6.1654132604598999e-001 8.1481480598449707e-001</leafValues></_>
        <_>
          <internalNodes>
            0 -1 56 1.9115723669528961e-002</internalNodes>
          <leafValues>
            4.1657149791717529e-001 -8.1967991590499878e-001</leafValues></_>
        <_>
          <internalNodes>
            0 -1 10 8.4086183051113039e-005</internalNodes>
          <leafValues>
            3.8908326625823975e-001 -9.0413910150527954e-001</leafValues></_>
        <_>
          <internalNodes>
            0 -1 17 2.1770424209535122e-003</internalNodes>
          <leafValues>
            -5.4936093091964722e-001 6.6847515106201172e-001</leafValues></_>
        <_>
          <internalNodes>
            0 -1 2 -2.3377974866889417e-004</internalNodes>
          <leafValues>
            -9.0414184331893921e-001 3.6613163352012634e-001</leafValues></_>
        <_>
          <internalNodes>
            0 -1 5 -4.6807559556327760e-004</internalNodes>
          <leafValues>
            -9.1718459129333496e-001 3.6708781123161316e-001</leafValues></_></weakClassifiers></_>
    <!-- stage 12 -->
    <_>
      <maxWeakCount>3</maxWeakCount>
      <stageThreshold>-7.2573643922805786e-001</stageThreshold>
      <weakClassifiers>
        <_>
          <internalNodes>
            0 -1 64 -4.3060196912847459e-004</internalNodes>
          <leafValues>
            1. -7.3913043737411499e-001</leafValues></_>
        <_>
          <internalNodes>
            0 -1 66 -4.0107307722792029e-004</internalNodes>
          <leafValues>
            8.9085298776626587e-001 -6.7849493026733398e-001</leafValues></_>
        <_>
          <internalNodes>
            0 -1 25 -3.5901850787922740e-004</internalNodes>
          <leafValues>
            -8.2566916942596436e-001 6.9188892841339111e-001</leafValues></_></weakClassifiers></_></stages>
  <features>
    <_>
      <rects>
        <_>
          0 2 10 26 -1.</_>
        <_>
          0 2 5 13 2.</_>
        <_>
          5 15 5 13 2.</_></rects>
      <tilted>0</tilted></_>
    <_>
      <rects>
        <_>
          0 12 8 18 -1.</_>
        <_>
          2 12 4 18 2.</_></rects>
      <tilted>0</tilted></_>
    <_>
      <rects>
        <_>
          0 35 3 2 -1.</_>
        <_>
          0 36 3 1 2.</_></rects>
      <tilted>0</tilted></_>
    <_>
      <rects>
        <_>
          1 14 15 14 -1.</_>
        <_>
          6 14 5 14 3.</_></rects>
      <tilted>0</tilted></_>
    <_>
      <rects>
        <_>
          1 19 6 4 -1.</_>
        <_>
          1 20 6 2 2.</_></rects>
      <tilted>0</tilted></_>
    <_>
      <rects>
        <_>
          1 25 7 3 -1.</_>
        <_>
          1 26 7 1 3.</_></rects>
      <tilted>0</tilted></_>
    <_>
      <rects>
        <_>
          2 13 6 16 -1.</_>
        <_>
          4 13 2 16 3.</_></rects>
      <tilted>0</tilted></_>
    <_>
      <rects>
        <_>
          2 18 8 1 -1.</_>
        <_>
          6 18 4 1 2.</_></rects>
      <tilted>0</tilted></_>
    <_>
      <rects>
        <_>
          3 19 7 3 -1.</_>
        <_>
          3 20 7 1 3.</_></rects>
      <tilted>0</tilted></_>
    <_>
      <rects>
        <_>
          5 15 24 19 -1.</_>
        <_>
          13 15 8 19 3.</_></rects>
      <tilted>0</tilted></_>
    <_>
      <rects>
        <_>
          5 19 1 3 -1.</_>
        <_>
          5 20 1 1 3.</_></rects>
      <tilted>0</tilted></_>
    <_>
      <rects>
        <_>
          6 11 6 20 -1.</_>
        <_>
          8 11 2 20 3.</_></rects>
      <tilted>0</tilted></_>
    <_>
      <rects>
        <_>
          7 8 27 4 -1.</_>
        <_>
          7 10 27 2 2.</_></rects>
      <tilted>0</tilted></_>
    <_>
      <rects>
        <_>
          7 22 12 6 -1.</_>
        <_>
          5 24 12 2 3.</_></rects>
      <tilted>1</tilted></_>
    <_>
      <rects>
        <_>
          8 20 12 8 -1.</_>
        <_>
          11 23 6 8 2.</_></rects>
      <tilted>1</tilted></_>
    <_>
      <rects>
        <_>
          9 9 25 24 -1.</_>
        <_>
          9 21 25 12 2.</_></rects>
      <tilted>0</tilted></_>
    <_>
      <rects>
        <_>
          9 25 23 15 -1.</_>
        <_>
          9 30 23 5 3.</_></rects>
      <tilted>0</tilted></_>
    <_>
      <rects>
        <_>
          10 9 8 6 -1.</_>
        <_>
          10 11 8 2 3.</_></rects>
      <tilted>0</tilted></_>
    <_>
      <rects>
        <_>
          10 18 9 6 -1.</_>
        <_>
          8 20 9 2 3.</_></rects>
      <tilted>1</tilted></_>
    <_>
      <rects>
        <_>
          11 29 7 4 -1.</_>
        <_>
          10 30 7 2 2.</_></rects>
      <tilted>1</tilted></_>
    <_>
      <rects>
        <_>
          11 34 12 4 -1.</_>
        <_>
          11 34 6 2 2.</_>
        <_>
          17 36 6 2 2.</_></rects>
      <tilted>0</tilted></_>
    <_>
      <rects>
        <_>
          12 6 24 14 -1.</_>
        <_>
          18 6 12 14 2.</_></rects>
      <tilted>0</tilted></_>
    <_>
      <rects>
        <_>
          12 9 13 24 -1.</_>
        <_>
          12 17 13 8 3.</_></rects>
      <tilted>0</tilted></_>
    <_>
      <rects>
        <_>
          12 20 4 3 -1.</_>
        <_>
          13 20 2 3 2.</_></rects>
      <tilted>0</tilted></_>
    <_>
      <rects>
        <_>
          12 23 7 6 -1.</_>
        <_>
          10 25 7 2 3.</_></rects>
      <tilted>1</tilted></_>
    <_>
      <rects>
        <_>
          12 31 3 9 -1.</_>
        <_>
          13 31 1 9 3.</_></rects>
      <tilted>0</tilted></_>
    <_>
      <rects>
        <_>
          14 4 3 6 -1.</_>
        <_>
          15 5 1 6 3.</_></rects>
      <tilted>1</tilted></_>
    <_>
      <rects>
        <_>
          14 4 8 11 -1.</_>
        <_>
          16 6 4 11 2.</_></rects>
      <tilted>1</tilted></_>
    <_>
      <rects>
        <_>
          14 15 2 9 -1.</_>
        <_>
          15 15 1 9 2.</_></rects>
      <tilted>0</tilted></_>
    <_>
      <rects>
        <_>
          15 1 4 11 -1.</_>
        <_>
          16 2 2 11 2.</_></rects>
      <tilted>1</tilted></_>
    <_>
      <rects>
        <_>
          15 4 6 8 -1.</_>
        <_>
          17 6 2 8 3.</_></rects>
      <tilted>1</tilted></_>
    <_>
      <rects>
        <_>
          15 28 6 4 -1.</_>
        <_>
          15 28 6 2 2.</_></rects>
      <tilted>1</tilted></_>
    <_>
      <rects>
        <_>
          16 2 8 3 -1.</_>
        <_>
          15 3 8 1 3.</_></rects>
      <tilted>1</tilted></_>
    <_>
      <rects>
        <_>
          16 3 8 4 -1.</_>
        <_>
          18 3 4 4 2.</_></rects>
      <tilted>0</tilted></_>
    <_>
      <rects>
        <_>
          16 17 6 5 -1.</_>
        <_>
          18 19 2 5 3.</_></rects>
      <tilted>1</tilted></_>
    <_>
      <rects>
        <_>
          16 22 15 15 -1.</_>
        <_>
          16 27 15 5 3.</_></rects>
      <tilted>0</tilted></_>
    <_>
      <rects>
        <_>
          17 0 6 27 -1.</_>
        <_>
          19 0 2 27 3.</_></rects>
      <tilted>0</tilted></_>
    <_>
      <rects>
        <_>
          20 5 9 4 -1.</_>
        <_>
          23 8 3 4 3.</_></rects>
      <tilted>1</tilted></_>
    <_>
      <rects>
        <_>
          20 17 4 20 -1.</_>
        <_>
          20 17 2 10 2.</_>
        <_>
          22 27 2 10 2.</_></rects>
      <tilted>0</tilted></_>
    <_>
      <rects>
        <_>
          20 18 6 3 -1.</_>
        <_>
          22 18 2 3 3.</_></rects>
      <tilted>0</tilted></_>
    <_>
      <rects>
        <_>
          21 7 4 3 -1.</_>
        <_>
          23 7 2 3 2.</_></rects>
      <tilted>0</tilted></_>
    <_>
      <rects>
        <_>
          22 3 5 12 -1.</_>
        <_>
          22 7 5 4 3.</_></rects>
      <tilted>0</tilted></_>
    <_>
      <rects>
        <_>
          22 3 8 15 -1.</_>
        <_>
          22 8 8 5 3.</_></rects>
      <tilted>0</tilted></_>
    <_>
      <rects>
        <_>
          22 28 8 3 -1.</_>
        <_>
          21 29 8 1 3.</_></rects>
      <tilted>1</tilted></_>
    <_>
      <rects>
        <_>
          22 30 3 4 -1.</_>
        <_>
          23 30 1 4 3.</_></rects>
      <tilted>0</tilted></_>
    <_>
      <rects>
        <_>
          23 17 6 7 -1.</_>
        <_>
          25 17 2 7 3.</_></rects>
      <tilted>0</tilted></_>
    <_>
      <rects>
        <_>
          23 24 6 12 -1.</_>
        <_>
          23 28 6 4 3.</_></rects>
      <tilted>0</tilted></_>
    <_>
      <rects>
        <_>
          24 2 4 4 -1.</_>
        <_>
          24 2 2 4 2.</_></rects>
      <tilted>1</tilted></_>
    <_>
      <rects>
        <_>
          25 9 3 28 -1.</_>
        <_>
          25 16 3 14 2.</_></rects>
      <tilted>0</tilted></_>
    <_>
      <rects>
        <_>
          25 13 11 20 -1.</_>
        <_>
          25 23 11 10 2.</_></rects>
      <tilted>0</tilted></_>
    <_>
      <rects>
        <_>
          25 16 8 5 -1.</_>
        <_>
          27 16 4 5 2.</_></rects>
      <tilted>0</tilted></_>
    <_>
      <rects>
        <_>
          26 14 6 13 -1.</_>
        <_>
          28 14 2 13 3.</_></rects>
      <tilted>0</tilted></_>
    <_>
      <rects>
        <_>
          26 20 3 7 -1.</_>
        <_>
          27 20 1 7 3.</_></rects>
      <tilted>0</tilted></_>
    <_>
      <rects>
        <_>
          27 5 8 24 -1.</_>
        <_>
          27 11 8 12 2.</_></rects>
      <tilted>0</tilted></_>
    <_>
      <rects>
        <_>
          27 14 9 10 -1.</_>
        <_>
          30 14 3 10 3.</_></rects>
      <tilted>0</tilted></_>
    <_>
      <rects>
        <_>
          28 5 10 6 -1.</_>
        <_>
          26 7 10 2 3.</_></rects>
      <tilted>1</tilted></_>
    <_>
      <rects>
        <_>
          28 7 9 21 -1.</_>
        <_>
          28 14 9 7 3.</_></rects>
      <tilted>0</tilted></_>
    <_>
      <rects>
        <_>
          29 18 9 2 -1.</_>
        <_>
          29 19 9 1 2.</_></rects>
      <tilted>0</tilted></_>
    <_>
      <rects>
        <_>
          30 14 6 12 -1.</_>
        <_>
          32 14 2 12 3.</_></rects>
      <tilted>0</tilted></_>
    <_>
      <rects>
        <_>
          31 1 8 4 -1.</_>
        <_>
          30 2 8 2 2.</_></rects>
      <tilted>1</tilted></_>
    <_>
      <rects>
        <_>
          31 21 6 7 -1.</_>
        <_>
          33 23 2 7 3.</_></rects>
      <tilted>1</tilted></_>
    <_>
      <rects>
        <_>
          32 8 4 6 -1.</_>
        <_>
          30 10 4 2 3.</_></rects>
      <tilted>1</tilted></_>
    <_>
      <rects>
        <_>
          32 14 6 26 -1.</_>
        <_>
          32 14 3 13 2.</_>
        <_>
          35 27 3 13 2.</_></rects>
      <tilted>0</tilted></_>
    <_>
      <rects>
        <_>
          32 20 6 10 -1.</_>
        <_>
          34 22 2 10 3.</_></rects>
      <tilted>1</tilted></_>
    <_>
      <rects>
        <_>
          32 21 2 18 -1.</_>
        <_>
          33 21 1 18 2.</_></rects>
      <tilted>0</tilted></_>
    <_>
      <rects>
        <_>
          33 3 7 4 -1.</_>
        <_>
          32 4 7 2 2.</_></rects>
      <tilted>1</tilted></_>
    <_>
      <rects>
        <_>
          33 4 2 12 -1.</_>
        <_>
          33 4 1 6 2.</_>
        <_>
          34 10 1 6 2.</_></rects>
      <tilted>0</tilted></_>
    <_>
      <rects>
        <_>
          33 11 6 17 -1.</_>
        <_>
          35 11 2 17 3.</_></rects>
      <tilted>0</tilted></_>
    <_>
      <rects>
        <_>
          33 27 3 4 -1.</_>
        <_>
          32 28 3 2 2.</_></rects>
      <tilted>1</tilted></_>
    <_>
      <rects>
        <_>
          34 5 4 8 -1.</_>
        <_>
          34 9 4 4 2.</_></rects>
      <tilted>0</tilted></_>
    <_>
      <rects>
        <_>
          34 18 3 2 -1.</_>
        <_>
          34 19 3 1 2.</_></rects>
      <tilted>0</tilted></_></features></cascade>
</opencv_storage>
